=== Run information ===

Scheme:weka.classifiers.trees.J48 -C 0.25 -M 2
Relation:     Tesis-weka.filters.unsupervised.attribute.Remove-R14-15,21-24-weka.filters.unsupervised.attribute.Remove-R12-weka.filters.unsupervised.instance.RemoveWithValues-S0.0-C18-L2-weka.filters.unsupervised.attribute.Remove-R16
Instances:    6993
Attributes:   17
              <ACTIVITY-ACT>
              <BATTERY-DISCH>
              <BATTERY-PLGAC>
              <BATTERY-PLGUSB>
              <BATTERY-POWER>
              <BLUETOOTH-ADDRESS>
              <BLUETOOTH-NAME>
              <BLUETOOTH-STATE>
              <BLUETOOTH-TSTATE>
              <CONNECTION-STATE>
              <GPS-STATE>
              <LOCATION-GROUP>
              <TIME-HOUR>
              <TIME-ISWEEKDAY>
              <TIME-QUARTER>
              <WIFI-IACCESS>
              <WIFI-STATE>
Test mode:10-fold cross-validation

=== Classifier model (full training set) ===

J48 pruned tree
------------------

<CONNECTION-STATE> = 0
|   <GPS-STATE> = 1: 0 (91.0/10.0)
|   <GPS-STATE> = 0
|   |   <ACTIVITY-ACT> = STILL: 1 (3269.0/1106.0)
|   |   <ACTIVITY-ACT> = ON_FOOT
|   |   |   <LOCATION-GROUP> = Group_1: 1 (138.0/49.0)
|   |   |   <LOCATION-GROUP> = Group_2
|   |   |   |   <TIME-QUARTER> = 2: 1 (3.0/1.0)
|   |   |   |   <TIME-QUARTER> = 3: 0 (3.0)
|   |   |   |   <TIME-QUARTER> = 0: 1 (0.0)
|   |   |   |   <TIME-QUARTER> = 1: 1 (8.0/2.0)
|   |   |   <LOCATION-GROUP> = Group_3: 1 (21.0/10.0)
|   |   |   <LOCATION-GROUP> = Group_4: 0 (1.0)
|   |   |   <LOCATION-GROUP> = Group_5: 1 (1.0)
|   |   |   <LOCATION-GROUP> = Group_6: 0 (0.0)
|   |   |   <LOCATION-GROUP> = Group_7: 0 (0.0)
|   |   |   <LOCATION-GROUP> = Group_8: 0 (0.0)
|   |   |   <LOCATION-GROUP> = Group_9: 0 (7.0/3.0)
|   |   |   <LOCATION-GROUP> = Group_10: 0 (0.0)
|   |   |   <LOCATION-GROUP> = Group_11: 0 (0.0)
|   |   |   <LOCATION-GROUP> = Group_12: 0 (1.0)
|   |   |   <LOCATION-GROUP> = Group_13: 0 (0.0)
|   |   |   <LOCATION-GROUP> = Group_14: 0 (0.0)
|   |   |   <LOCATION-GROUP> = Group_15: 0 (0.0)
|   |   |   <LOCATION-GROUP> = Group_16: 0 (0.0)
|   |   |   <LOCATION-GROUP> = Group_17: 0 (1.0)
|   |   |   <LOCATION-GROUP> = Group_18: 0 (0.0)
|   |   |   <LOCATION-GROUP> = Group_19: 0 (0.0)
|   |   |   <LOCATION-GROUP> = Group_20: 0 (0.0)
|   |   |   <LOCATION-GROUP> = Group_21: 0 (54.0/17.0)
|   |   |   <LOCATION-GROUP> = Group_22: 0 (178.0/73.0)
|   |   |   <LOCATION-GROUP> = Group_23: 0 (9.0/4.0)
|   |   |   <LOCATION-GROUP> = Group_24: 1 (38.0/13.0)
|   |   |   <LOCATION-GROUP> = Group_25: 1 (5.0/2.0)
|   |   |   <LOCATION-GROUP> = Group_27: 0 (1.0)
|   |   |   <LOCATION-GROUP> = Group_28: 0 (4.0)
|   |   |   <LOCATION-GROUP> = Group_29: 0 (0.0)
|   |   |   <LOCATION-GROUP> = Group_30: 0 (2.0/1.0)
|   |   |   <LOCATION-GROUP> = Group_31: 0 (33.0/12.0)
|   |   |   <LOCATION-GROUP> = Group_32: 0 (13.0/3.0)
|   |   |   <LOCATION-GROUP> = Group_33: 0 (45.0/20.0)
|   |   |   <LOCATION-GROUP> = Group_34: 0 (8.0/2.0)
|   |   |   <LOCATION-GROUP> = Group_35: 0 (3.0)
|   |   |   <LOCATION-GROUP> = Group_36: 0 (2.0/1.0)
|   |   |   <LOCATION-GROUP> = Group_37: 0 (0.0)
|   |   |   <LOCATION-GROUP> = Group_39: 1 (3.0/1.0)
|   |   |   <LOCATION-GROUP> = Group_40: 1 (11.0/3.0)
|   |   |   <LOCATION-GROUP> = Group_41: 0 (4.0/2.0)
|   |   |   <LOCATION-GROUP> = Group_42: 0 (0.0)
|   |   |   <LOCATION-GROUP> = Group_43: 0 (0.0)
|   |   |   <LOCATION-GROUP> = Group_44: 0 (3.0)
|   |   |   <LOCATION-GROUP> = Group_45: 0 (0.0)
|   |   |   <LOCATION-GROUP> = Group_46: 0 (1.0)
|   |   |   <LOCATION-GROUP> = Group_38: 1 (3.0/1.0)
|   |   |   <LOCATION-GROUP> = Group_49: 0 (0.0)
|   |   |   <LOCATION-GROUP> = Group_50: 0 (0.0)
|   |   |   <LOCATION-GROUP> = Group_51: 0 (0.0)
|   |   |   <LOCATION-GROUP> = Group_52: 0 (0.0)
|   |   |   <LOCATION-GROUP> = Group_53: 0 (0.0)
|   |   |   <LOCATION-GROUP> = Group_54: 0 (0.0)
|   |   |   <LOCATION-GROUP> = Group_55: 0 (0.0)
|   |   |   <LOCATION-GROUP> = Group_56: 0 (0.0)
|   |   |   <LOCATION-GROUP> = Group_57: 0 (0.0)
|   |   |   <LOCATION-GROUP> = Group_58: 0 (0.0)
|   |   |   <LOCATION-GROUP> = Group_59: 0 (0.0)
|   |   |   <LOCATION-GROUP> = Group_60: 0 (0.0)
|   |   |   <LOCATION-GROUP> = Group_26: 0 (2.0/1.0)
|   |   |   <LOCATION-GROUP> = Group_62: 0 (0.0)
|   |   |   <LOCATION-GROUP> = Group_63: 0 (0.0)
|   |   |   <LOCATION-GROUP> = Group_64: 0 (0.0)
|   |   |   <LOCATION-GROUP> = Group_65: 0 (0.0)
|   |   |   <LOCATION-GROUP> = Group_66: 1 (1.0)
|   |   |   <LOCATION-GROUP> = Group_67: 0 (0.0)
|   |   |   <LOCATION-GROUP> = Group_68: 0 (0.0)
|   |   |   <LOCATION-GROUP> = Group_69: 1 (1.0)
|   |   |   <LOCATION-GROUP> = Group_70: 0 (0.0)
|   |   |   <LOCATION-GROUP> = Group_71: 0 (0.0)
|   |   |   <LOCATION-GROUP> = Group_72: 0 (0.0)
|   |   |   <LOCATION-GROUP> = Group_73: 0 (0.0)
|   |   |   <LOCATION-GROUP> = Group_74: 1 (2.0)
|   |   |   <LOCATION-GROUP> = Group_75: 0 (0.0)
|   |   |   <LOCATION-GROUP> = Group_76: 0 (0.0)
|   |   |   <LOCATION-GROUP> = Group_77
|   |   |   |   <BATTERY-POWER> = 1: 1 (3.0/1.0)
|   |   |   |   <BATTERY-POWER> = 0: 0 (0.0)
|   |   |   |   <BATTERY-POWER> = 2: 0 (2.0)
|   |   |   <LOCATION-GROUP> = Group_78: 0 (0.0)
|   |   |   <LOCATION-GROUP> = Group_79: 0 (0.0)
|   |   |   <LOCATION-GROUP> = Group_61: 0 (0.0)
|   |   |   <LOCATION-GROUP> = Group_80: 0 (0.0)
|   |   |   <LOCATION-GROUP> = Group_81: 0 (0.0)
|   |   |   <LOCATION-GROUP> = Group_82: 0 (0.0)
|   |   |   <LOCATION-GROUP> = Group_83: 0 (0.0)
|   |   |   <LOCATION-GROUP> = Group_84: 0 (0.0)
|   |   |   <LOCATION-GROUP> = Group_85: 0 (0.0)
|   |   |   <LOCATION-GROUP> = Group_86: 0 (0.0)
|   |   |   <LOCATION-GROUP> = Group_87: 0 (0.0)
|   |   |   <LOCATION-GROUP> = Group_88: 0 (0.0)
|   |   |   <LOCATION-GROUP> = Group_89: 0 (0.0)
|   |   |   <LOCATION-GROUP> = Group_90: 0 (0.0)
|   |   |   <LOCATION-GROUP> = Group_91: 0 (0.0)
|   |   |   <LOCATION-GROUP> = Group_92: 0 (0.0)
|   |   |   <LOCATION-GROUP> = Group_94: 0 (0.0)
|   |   |   <LOCATION-GROUP> = Group_95: 0 (0.0)
|   |   |   <LOCATION-GROUP> = Group_96: 0 (0.0)
|   |   |   <LOCATION-GROUP> = Group_97: 0 (0.0)
|   |   |   <LOCATION-GROUP> = Group_98: 0 (0.0)
|   |   |   <LOCATION-GROUP> = Group_99: 0 (0.0)
|   |   |   <LOCATION-GROUP> = Group_100: 0 (0.0)
|   |   |   <LOCATION-GROUP> = Group_48: 0 (0.0)
|   |   |   <LOCATION-GROUP> = Group_47: 0 (0.0)
|   |   |   <LOCATION-GROUP> = Group_101: 0 (0.0)
|   |   |   <LOCATION-GROUP> = Group_102: 0 (0.0)
|   |   |   <LOCATION-GROUP> = Group_103: 0 (0.0)
|   |   |   <LOCATION-GROUP> = Group_104: 0 (0.0)
|   |   |   <LOCATION-GROUP> = Group_105: 0 (0.0)
|   |   |   <LOCATION-GROUP> = Group_106: 0 (0.0)
|   |   |   <LOCATION-GROUP> = Group_107: 0 (0.0)
|   |   |   <LOCATION-GROUP> = Group_108: 1 (3.0/1.0)
|   |   |   <LOCATION-GROUP> = Group_109: 0 (0.0)
|   |   |   <LOCATION-GROUP> = Group_110: 0 (0.0)
|   |   |   <LOCATION-GROUP> = Group_111: 0 (0.0)
|   |   |   <LOCATION-GROUP> = Group_112: 0 (0.0)
|   |   |   <LOCATION-GROUP> = Group_113: 0 (0.0)
|   |   |   <LOCATION-GROUP> = Group_114: 0 (0.0)
|   |   |   <LOCATION-GROUP> = Group_115: 0 (0.0)
|   |   <ACTIVITY-ACT> = IN_VEHICLE
|   |   |   <TIME-HOUR> = 22: 0 (6.0/1.0)
|   |   |   <TIME-HOUR> = 23: 0 (4.0/1.0)
|   |   |   <TIME-HOUR> = 7: 0 (0.0)
|   |   |   <TIME-HOUR> = 8: 0 (0.0)
|   |   |   <TIME-HOUR> = 10: 0 (1.0)
|   |   |   <TIME-HOUR> = 12: 0 (1.0)
|   |   |   <TIME-HOUR> = 13: 0 (0.0)
|   |   |   <TIME-HOUR> = 14: 1 (1.0)
|   |   |   <TIME-HOUR> = 15: 0 (4.0)
|   |   |   <TIME-HOUR> = 17: 0 (2.0)
|   |   |   <TIME-HOUR> = 18: 0 (0.0)
|   |   |   <TIME-HOUR> = 19: 1 (4.0)
|   |   |   <TIME-HOUR> = 21: 1 (5.0)
|   |   |   <TIME-HOUR> = 9: 0 (1.0)
|   |   |   <TIME-HOUR> = 11: 0 (0.0)
|   |   |   <TIME-HOUR> = 20: 1 (1.0)
|   |   |   <TIME-HOUR> = 0: 0 (2.0)
|   |   |   <TIME-HOUR> = 16: 0 (2.0/1.0)
|   |   |   <TIME-HOUR> = 1: 0 (0.0)
|   |   |   <TIME-HOUR> = 3: 0 (0.0)
|   |   |   <TIME-HOUR> = 2: 1 (3.0)
|   |   |   <TIME-HOUR> = 4: 0 (0.0)
|   |   |   <TIME-HOUR> = 5: 0 (0.0)
|   |   |   <TIME-HOUR> = 6: 0 (0.0)
|   |   <ACTIVITY-ACT> = ON_BICYCLE: 0 (4.0/2.0)
<CONNECTION-STATE> = 1: 0 (2123.0/344.0)

Number of Leaves  : 	147

Size of the tree : 	154


Time taken to build model: 0.31 seconds

=== Stratified cross-validation ===
=== Summary ===

Correctly Classified Instances        4402               71.6705 %
Incorrectly Classified Instances      1740               28.3295 %
Kappa statistic                          0.4398
Mean absolute error                      0.3865
Root mean squared error                  0.4428
Relative absolute error                 77.7694 %
Root relative squared error             88.8369 %
Total Number of Instances             6142     
Ignored Class Unknown Instances                851     

=== Detailed Accuracy By Class ===

               TP Rate   FP Rate   Precision   Recall  F-Measure   ROC Area  Class
                 0.634     0.186      0.799     0.634     0.707      0.692    0
                 0.814     0.366      0.655     0.814     0.726      0.727    1
Weighted Avg.    0.717     0.269      0.733     0.717     0.716      0.708

=== Confusion Matrix ===

    a    b   <-- classified as
 2097 1213 |    a = 0
  527 2305 |    b = 1

